svm_type c_svc
kernel_type polynomial
degree 2
gamma 0.5
coef0 1
nr_class 2
total_sv 5
rho -2.588689005948599
label 1 2
nr_sv 3 2
SV
10 1:0.326 2:0.42 
3.5416318298106861 1:0.126 2:0.61 
2.4143320336871823 1:0.534 2:0.122 
-5.9559638634978702 1:0.794 2:0.546 
-10 1:0.236 2:0.522 
