svm_type c_svc
kernel_type polynomial
degree 2
gamma 0.5
coef0 1
nr_class 2
total_sv 3
rho -2.7114600167008014
label 1 2
nr_sv 2 1
SV
3.4074087348361695 1:0.326 2:0.42 
2.8299680970831882 1:0.534 2:0.122 
-6.2373768319193585 1:0.794 2:0.546 
